digraph Tree {
node [shape=box, style="filled", color="black"] ;
0 [label="i <= 59.455\ngini = 0.593\nsamples = 20386\nvalue = [1530, 563, 720, 837, 477, 717, 1242, 1007, 12717\n266, 211, 99]\nclass = plosive", fillcolor="#b48af0"] ;
1 [label="i <= 45.884\ngini = 0.228\nsamples = 14114\nvalue = [158, 153, 38, 475, 12, 90, 178, 562, 12374, 17, 55\n2]\nclass = plosive", fillcolor="#9152e8"] ;
0 -> 1 [labeldistance=2.5, labelangle=45, headlabel="True"] ;
2 [label="i <= 38.357\ngini = 0.078\nsamples = 11050\nvalue = [19, 52, 3, 189, 0, 8, 20, 144, 10606, 1, 8, 0]\nclass = plosive", fillcolor="#8641e6"] ;
1 -> 2 ;
3 [label="f_2 <= 901.346\ngini = 0.029\nsamples = 9004\nvalue = [4, 9, 1, 86, 0, 1, 9, 22, 8870, 0, 2, 0]\nclass = plosive", fillcolor="#833ce5"] ;
2 -> 3 ;
4 [label="gini = 0.0\nsamples = 3\nvalue = [0, 0, 0, 0, 0, 0, 3, 0, 0, 0, 0, 0]\nclass = nasal", fillcolor="#399de5"] ;
3 -> 4 ;
5 [label="i <= 31.996\ngini = 0.029\nsamples = 9001\nvalue = [4, 9, 1, 86, 0, 1, 6, 22, 8870, 0, 2, 0]\nclass = plosive", fillcolor="#833ce5"] ;
3 -> 5 ;
6 [label="f_1 <= 330.228\ngini = 0.012\nsamples = 7474\nvalue = [4, 2, 1, 29, 0, 0, 6, 0, 7430, 0, 2, 0]\nclass = plosive", fillcolor="#823ae5"] ;
5 -> 6 ;
7 [label="gini = 0.103\nsamples = 166\nvalue = [0, 0, 0, 9, 0, 0, 0, 0, 157, 0, 0, 0]\nclass = plosive", fillcolor="#8844e6"] ;
6 -> 7 ;
8 [label="gini = 0.01\nsamples = 7308\nvalue = [4, 2, 1, 20, 0, 0, 6, 0, 7273, 0, 2, 0]\nclass = plosive", fillcolor="#823ae5"] ;
6 -> 8 ;
9 [label="f_5 <= 3830.421\ngini = 0.109\nsamples = 1527\nvalue = [0, 7, 0, 57, 0, 1, 0, 22, 1440, 0, 0, 0]\nclass = plosive", fillcolor="#8845e7"] ;
5 -> 9 ;
10 [label="gini = 0.086\nsamples = 1349\nvalue = [0, 7, 0, 32, 0, 1, 0, 20, 1289, 0, 0, 0]\nclass = plosive", fillcolor="#8742e6"] ;
9 -> 10 ;
11 [label="gini = 0.261\nsamples = 178\nvalue = [0, 0, 0, 25, 0, 0, 0, 2, 151, 0, 0, 0]\nclass = plosive", fillcolor="#975cea"] ;
9 -> 11 ;
12 [label="f_2 <= 1208.572\ngini = 0.273\nsamples = 2046\nvalue = [15, 43, 2, 103, 0, 7, 11, 122, 1736, 1, 6, 0]\nclass = plosive", fillcolor="#9559e9"] ;
2 -> 12 ;
13 [label="f_3 <= 2391.986\ngini = 0.588\nsamples = 99\nvalue = [0, 27, 0, 1, 0, 0, 2, 13, 56, 0, 0, 0]\nclass = plosive", fillcolor="#ccaff5"] ;
12 -> 13 ;
14 [label="f_1 <= 381.788\ngini = 0.269\nsamples = 60\nvalue = [0, 3, 0, 0, 0, 0, 2, 4, 51, 0, 0, 0]\nclass = plosive", fillcolor="#9559e9"] ;
13 -> 14 ;
15 [label="gini = 0.5\nsamples = 6\nvalue = [0, 0, 0, 0, 0, 0, 0, 3, 3, 0, 0, 0]\nclass = fricative", fillcolor="#ffffff"] ;
14 -> 15 ;
16 [label="gini = 0.205\nsamples = 54\nvalue = [0, 3, 0, 0, 0, 0, 2, 1, 48, 0, 0, 0]\nclass = plosive", fillcolor="#9050e8"] ;
14 -> 16 ;
17 [label="f_1 <= 717.333\ngini = 0.551\nsamples = 39\nvalue = [0, 24, 0, 1, 0, 0, 0, 9, 5, 0, 0, 0]\nclass = vibrant", fillcolor="#f2eb9c"] ;
13 -> 17 ;
18 [label="gini = 0.676\nsamples = 21\nvalue = [0, 6, 0, 1, 0, 0, 0, 9, 5, 0, 0, 0]\nclass = fricative", fillcolor="#d7dafa"] ;
17 -> 18 ;
19 [label="gini = 0.0\nsamples = 18\nvalue = [0, 18, 0, 0, 0, 0, 0, 0, 0, 0, 0, 0]\nclass = vibrant", fillcolor="#e5d739"] ;
17 -> 19 ;
20 [label="f_4 <= 3035.893\ngini = 0.249\nsamples = 1947\nvalue = [15, 16, 2, 102, 0, 7, 9, 109, 1680, 1, 6, 0]\nclass = plosive", fillcolor="#9356e9"] ;
12 -> 20 ;
21 [label="f_2 <= 1823.589\ngini = 0.138\nsamples = 426\nvalue = [1, 3, 2, 4, 0, 0, 1, 19, 395, 0, 1, 0]\nclass = plosive", fillcolor="#8b48e7"] ;
20 -> 21 ;
22 [label="gini = 0.1\nsamples = 403\nvalue = [1, 3, 0, 3, 0, 0, 1, 12, 382, 0, 1, 0]\nclass = plosive", fillcolor="#8844e6"] ;
21 -> 22 ;
23 [label="gini = 0.578\nsamples = 23\nvalue = [0, 0, 2, 1, 0, 0, 0, 7, 13, 0, 0, 0]\nclass = plosive", fillcolor="#d0b5f5"] ;
21 -> 23 ;
24 [label="f_5 <= 3632.218\ngini = 0.278\nsamples = 1521\nvalue = [14, 13, 0, 98, 0, 7, 8, 90, 1285, 1, 5, 0]\nclass = plosive", fillcolor="#965ae9"] ;
20 -> 24 ;
25 [label="gini = 0.441\nsamples = 377\nvalue = [2, 5, 0, 49, 0, 0, 4, 37, 275, 0, 5, 0]\nclass = plosive", fillcolor="#a877ed"] ;
24 -> 25 ;
26 [label="gini = 0.216\nsamples = 1144\nvalue = [12, 8, 0, 49, 0, 7, 4, 53, 1010, 1, 0, 0]\nclass = plosive", fillcolor="#9051e8"] ;
24 -> 26 ;
27 [label="f_5 <= 4023.374\ngini = 0.633\nsamples = 3064\nvalue = [139, 101, 35, 286, 12, 82, 158, 418, 1768, 16, 47\n2]\nclass = plosive", fillcolor="#bf9af2"] ;
1 -> 27 ;
28 [label="i <= 52.391\ngini = 0.71\nsamples = 2497\nvalue = [139, 100, 35, 282, 12, 76, 156, 407, 1225, 16, 47\n2]\nclass = plosive", fillcolor="#ceb2f5"] ;
27 -> 28 ;
29 [label="f_5 <= 3830.232\ngini = 0.543\nsamples = 1272\nvalue = [33, 23, 13, 132, 0, 16, 33, 174, 830, 4, 14, 0]\nclass = plosive", fillcolor="#b489ef"] ;
28 -> 29 ;
30 [label="i <= 49.159\ngini = 0.515\nsamples = 1192\nvalue = [32, 23, 13, 100, 0, 15, 32, 151, 808, 4, 14, 0]\nclass = plosive", fillcolor="#af82ef"] ;
29 -> 30 ;
31 [label="gini = 0.425\nsamples = 739\nvalue = [16, 12, 6, 50, 0, 4, 11, 84, 551, 1, 4, 0]\nclass = plosive", fillcolor="#a572ec"] ;
30 -> 31 ;
32 [label="gini = 0.639\nsamples = 453\nvalue = [16, 11, 7, 50, 0, 11, 21, 67, 257, 3, 10, 0]\nclass = plosive", fillcolor="#c19ef2"] ;
30 -> 32 ;
33 [label="f_2 <= 1227.012\ngini = 0.681\nsamples = 80\nvalue = [1, 0, 0, 32, 0, 1, 1, 23, 22, 0, 0, 0]\nclass = approximant", fillcolor="#e2fbe0"] ;
29 -> 33 ;
34 [label="gini = 0.188\nsamples = 19\nvalue = [0, 0, 0, 0, 0, 0, 0, 17, 2, 0, 0, 0]\nclass = fricative", fillcolor="#505de8"] ;
33 -> 34 ;
35 [label="gini = 0.607\nsamples = 61\nvalue = [1, 0, 0, 32, 0, 1, 1, 6, 20, 0, 0, 0]\nclass = approximant", fillcolor="#c9f7c5"] ;
33 -> 35 ;
36 [label="f_1 <= 789.083\ngini = 0.82\nsamples = 1225\nvalue = [106, 77, 22, 150, 12, 60, 123, 233, 395, 12, 33\n2]\nclass = plosive", fillcolor="#eadffb"] ;
28 -> 36 ;
37 [label="f_2 <= 1124.624\ngini = 0.852\nsamples = 899\nvalue = [88, 69, 21, 101, 12, 53, 112, 213, 186, 10, 32\n2]\nclass = fricative", fillcolor="#f8f8fe"] ;
36 -> 37 ;
38 [label="gini = 0.669\nsamples = 133\nvalue = [1, 11, 0, 1, 0, 4, 61, 43, 12, 0, 0, 0]\nclass = nasal", fillcolor="#d7ebfa"] ;
37 -> 38 ;
39 [label="gini = 0.852\nsamples = 766\nvalue = [87, 58, 21, 100, 12, 49, 51, 170, 174, 10, 32, 2]\nclass = plosive", fillcolor="#fefeff"] ;
37 -> 39 ;
40 [label="f_5 <= 3818.385\ngini = 0.557\nsamples = 326\nvalue = [18, 8, 1, 49, 0, 7, 11, 20, 209, 2, 1, 0]\nclass = plosive", fillcolor="#b68df0"] ;
36 -> 40 ;
41 [label="gini = 0.714\nsamples = 99\nvalue = [6, 5, 1, 39, 0, 1, 0, 14, 32, 1, 0, 0]\nclass = approximant", fillcolor="#ecfcea"] ;
40 -> 41 ;
42 [label="gini = 0.383\nsamples = 227\nvalue = [12, 3, 0, 10, 0, 6, 11, 6, 177, 1, 1, 0]\nclass = plosive", fillcolor="#9e67eb"] ;
40 -> 42 ;
43 [label="f_4 <= 3314.711\ngini = 0.082\nsamples = 567\nvalue = [0, 1, 0, 4, 0, 6, 2, 11, 543, 0, 0, 0]\nclass = plosive", fillcolor="#8642e6"] ;
27 -> 43 ;
44 [label="f_1 <= 407.819\ngini = 0.658\nsamples = 32\nvalue = [0, 1, 0, 2, 0, 5, 0, 8, 16, 0, 0, 0]\nclass = plosive", fillcolor="#d5bdf6"] ;
43 -> 44 ;
45 [label="f_2 <= 1238.821\ngini = 0.649\nsamples = 15\nvalue = [0, 1, 0, 0, 0, 5, 0, 7, 2, 0, 0, 0]\nclass = fricative", fillcolor="#d7dafa"] ;
44 -> 45 ;
46 [label="gini = 0.346\nsamples = 9\nvalue = [0, 0, 0, 0, 0, 2, 0, 7, 0, 0, 0, 0]\nclass = fricative", fillcolor="#727cec"] ;
45 -> 46 ;
47 [label="gini = 0.611\nsamples = 6\nvalue = [0, 1, 0, 0, 0, 3, 0, 0, 2, 0, 0, 0]\nclass = u", fillcolor="#cef8f5"] ;
45 -> 47 ;
48 [label="f_5 <= 5035.443\ngini = 0.304\nsamples = 17\nvalue = [0, 0, 0, 2, 0, 0, 0, 1, 14, 0, 0, 0]\nclass = plosive", fillcolor="#9a61ea"] ;
44 -> 48 ;
49 [label="gini = 0.124\nsamples = 15\nvalue = [0, 0, 0, 1, 0, 0, 0, 0, 14, 0, 0, 0]\nclass = plosive", fillcolor="#8a47e7"] ;
48 -> 49 ;
50 [label="gini = 0.5\nsamples = 2\nvalue = [0, 0, 0, 1, 0, 0, 0, 1, 0, 0, 0, 0]\nclass = approximant", fillcolor="#ffffff"] ;
48 -> 50 ;
51 [label="f_2 <= 1150.611\ngini = 0.03\nsamples = 535\nvalue = [0, 0, 0, 2, 0, 1, 2, 3, 527, 0, 0, 0]\nclass = plosive", fillcolor="#833ce5"] ;
43 -> 51 ;
52 [label="f_4 <= 3524.475\ngini = 0.46\nsamples = 10\nvalue = [0, 0, 0, 0, 0, 0, 1, 2, 7, 0, 0, 0]\nclass = plosive", fillcolor="#b083ef"] ;
51 -> 52 ;
53 [label="gini = 0.5\nsamples = 2\nvalue = [0, 0, 0, 0, 0, 0, 1, 1, 0, 0, 0, 0]\nclass = nasal", fillcolor="#ffffff"] ;
52 -> 53 ;
54 [label="gini = 0.219\nsamples = 8\nvalue = [0, 0, 0, 0, 0, 0, 0, 1, 7, 0, 0, 0]\nclass = plosive", fillcolor="#9355e9"] ;
52 -> 54 ;
55 [label="f_1 <= 1078.213\ngini = 0.019\nsamples = 525\nvalue = [0, 0, 0, 2, 0, 1, 1, 1, 520, 0, 0, 0]\nclass = plosive", fillcolor="#823be5"] ;
51 -> 55 ;
56 [label="gini = 0.015\nsamples = 522\nvalue = [0, 0, 0, 1, 0, 1, 1, 1, 518, 0, 0, 0]\nclass = plosive", fillcolor="#823be5"] ;
55 -> 56 ;
57 [label="gini = 0.444\nsamples = 3\nvalue = [0, 0, 0, 1, 0, 0, 0, 0, 2, 0, 0, 0]\nclass = plosive", fillcolor="#c09cf2"] ;
55 -> 57 ;
58 [label="f_1 <= 596.609\ngini = 0.878\nsamples = 6272\nvalue = [1372, 410, 682, 362, 465, 627, 1064, 445, 343, 249\n156, 97]\nclass = sil", fillcolor="#fdf8f3"] ;
0 -> 58 [labeldistance=2.5, labelangle=-45, headlabel="False"] ;
59 [label="f_2 <= 1173.55\ngini = 0.879\nsamples = 4382\nvalue = [231, 347, 618, 231, 459, 585, 963, 353, 134, 246\n132, 83]\nclass = nasal", fillcolor="#edf6fd"] ;
58 -> 59 ;
60 [label="f_1 <= 345.144\ngini = 0.685\nsamples = 1367\nvalue = [67, 19, 44, 19, 42, 161, 714, 86, 10, 189, 13, 3]\nclass = nasal", fillcolor="#a7d3f3"] ;
59 -> 60 ;
61 [label="f_1 <= 227.578\ngini = 0.619\nsamples = 219\nvalue = [3, 1, 1, 1, 27, 128, 18, 27, 6, 7, 0, 0]\nclass = u", fillcolor="#97f1ea"] ;
60 -> 61 ;
62 [label="f_1 <= 213.2\ngini = 0.418\nsamples = 15\nvalue = [0, 0, 0, 0, 0, 0, 1, 11, 3, 0, 0, 0]\nclass = fricative", fillcolor="#7b84ee"] ;
61 -> 62 ;
63 [label="gini = 0.375\nsamples = 4\nvalue = [0, 0, 0, 0, 0, 0, 1, 0, 3, 0, 0, 0]\nclass = plosive", fillcolor="#ab7bee"] ;
62 -> 63 ;
64 [label="gini = 0.0\nsamples = 11\nvalue = [0, 0, 0, 0, 0, 0, 0, 11, 0, 0, 0, 0]\nclass = fricative", fillcolor="#3947e5"] ;
62 -> 64 ;
65 [label="f_1 <= 310.538\ngini = 0.574\nsamples = 204\nvalue = [3, 1, 1, 1, 27, 128, 17, 16, 3, 7, 0, 0]\nclass = u", fillcolor="#8ef0e8"] ;
61 -> 65 ;
66 [label="gini = 0.418\nsamples = 134\nvalue = [2, 0, 0, 0, 7, 101, 8, 11, 3, 2, 0, 0]\nclass = u", fillcolor="#6eece2"] ;
65 -> 66 ;
67 [label="gini = 0.742\nsamples = 70\nvalue = [1, 1, 1, 1, 20, 27, 9, 5, 0, 5, 0, 0]\nclass = u", fillcolor="#e3fbf9"] ;
65 -> 67 ;
68 [label="f_2 <= 731.663\ngini = 0.599\nsamples = 1148\nvalue = [64, 18, 43, 18, 15, 33, 696, 59, 4, 182, 13, 3]\nclass = nasal", fillcolor="#96cbf1"] ;
60 -> 68 ;
69 [label="f_3 <= 1899.353\ngini = 0.552\nsamples = 121\nvalue = [0, 3, 4, 0, 0, 0, 42, 3, 0, 69, 0, 0]\nclass = voiceless", fillcolor="#f1bbf6"] ;
68 -> 69 ;
70 [label="gini = 0.192\nsamples = 39\nvalue = [0, 1, 1, 0, 0, 0, 1, 1, 0, 35, 0, 0]\nclass = voiceless", fillcolor="#db4ee8"] ;
69 -> 70 ;
71 [label="gini = 0.576\nsamples = 82\nvalue = [0, 2, 3, 0, 0, 0, 41, 2, 0, 34, 0, 0]\nclass = nasal", fillcolor="#e2f1fb"] ;
69 -> 71 ;
72 [label="f_1 <= 381.826\ngini = 0.572\nsamples = 1027\nvalue = [64, 15, 39, 18, 15, 33, 654, 56, 4, 113, 13, 3]\nclass = nasal", fillcolor="#8ac5f0"] ;
68 -> 72 ;
73 [label="gini = 0.733\nsamples = 90\nvalue = [0, 3, 1, 3, 7, 7, 25, 7, 0, 37, 0, 0]\nclass = voiceless", fillcolor="#f8dafa"] ;
72 -> 73 ;
74 [label="gini = 0.532\nsamples = 937\nvalue = [64, 12, 38, 15, 8, 26, 629, 49, 4, 76, 13, 3]\nclass = nasal", fillcolor="#80c0ee"] ;
72 -> 74 ;
75 [label="f_1 <= 428.005\ngini = 0.886\nsamples = 3015\nvalue = [164, 328, 574, 212, 417, 424, 249, 267, 124, 57\n119, 80]\nclass = e", fillcolor="#f9fdf4"] ;
59 -> 75 ;
76 [label="f_2 <= 1973.527\ngini = 0.841\nsamples = 1496\nvalue = [12, 265, 108, 119, 339, 340, 52, 146, 55, 36, 20\n4]\nclass = u", fillcolor="#ffffff"] ;
75 -> 76 ;
77 [label="f_2 <= 1395.916\ngini = 0.842\nsamples = 1339\nvalue = [12, 262, 80, 107, 235, 340, 52, 136, 55, 36, 20\n4]\nclass = u", fillcolor="#f1fdfc"] ;
76 -> 77 ;
78 [label="gini = 0.797\nsamples = 576\nvalue = [7, 56, 31, 27, 109, 214, 32, 53, 10, 26, 11, 0]\nclass = u", fillcolor="#d2f9f6"] ;
77 -> 78 ;
79 [label="gini = 0.841\nsamples = 763\nvalue = [5, 206, 49, 80, 126, 126, 20, 83, 45, 10, 9, 4]\nclass = vibrant", fillcolor="#fcfae6"] ;
77 -> 79 ;
80 [label="i <= 75.607\ngini = 0.519\nsamples = 157\nvalue = [0, 3, 28, 12, 104, 0, 0, 10, 0, 0, 0, 0]\nclass = o", fillcolor="#8af0b5"] ;
76 -> 80 ;
81 [label="gini = 0.718\nsamples = 58\nvalue = [0, 2, 24, 8, 15, 0, 0, 9, 0, 0, 0, 0]\nclass = e", fillcolor="#eafad6"] ;
80 -> 81 ;
82 [label="gini = 0.188\nsamples = 99\nvalue = [0, 1, 4, 4, 89, 0, 0, 1, 0, 0, 0, 0]\nclass = o", fillcolor="#4ee88e"] ;
80 -> 82 ;
83 [label="f_2 <= 1580.749\ngini = 0.853\nsamples = 1519\nvalue = [152, 63, 466, 93, 78, 84, 197, 121, 69, 21, 99\n76]\nclass = e", fillcolor="#ebfad7"] ;
75 -> 83 ;
84 [label="f_3 <= 2364.907\ngini = 0.883\nsamples = 930\nvalue = [129, 45, 137, 39, 39, 64, 191, 75, 37, 20, 96\n58]\nclass = nasal", fillcolor="#f2f8fd"] ;
83 -> 84 ;
85 [label="gini = 0.87\nsamples = 656\nvalue = [114, 29, 120, 16, 20, 41, 110, 47, 8, 18, 96, 37]\nclass = e", fillcolor="#fefffd"] ;
84 -> 85 ;
86 [label="gini = 0.856\nsamples = 274\nvalue = [15, 16, 17, 23, 19, 23, 81, 28, 29, 2, 0, 21]\nclass = nasal", fillcolor="#d5eaf9"] ;
84 -> 86 ;
87 [label="i <= 66.512\ngini = 0.661\nsamples = 589\nvalue = [23, 18, 329, 54, 39, 20, 6, 46, 32, 1, 3, 18]\nclass = e", fillcolor="#cdf299"] ;
83 -> 87 ;
88 [label="gini = 0.824\nsamples = 138\nvalue = [3, 11, 22, 29, 3, 1, 2, 30, 31, 1, 1, 4]\nclass = plosive", fillcolor="#fefdff"] ;
87 -> 88 ;
89 [label="gini = 0.521\nsamples = 451\nvalue = [20, 7, 307, 25, 36, 19, 4, 16, 1, 0, 2, 14]\nclass = e", fillcolor="#bfee7e"] ;
87 -> 89 ;
90 [label="i <= 66.389\ngini = 0.61\nsamples = 1890\nvalue = [1141, 63, 64, 131, 6, 42, 101, 92, 209, 3, 24\n14]\nclass = sil", fillcolor="#f1b991"] ;
58 -> 90 ;
91 [label="f_5 <= 4108.665\ngini = 0.782\nsamples = 574\nvalue = [153, 33, 9, 86, 0, 15, 40, 43, 190, 0, 1, 4]\nclass = plosive", fillcolor="#f4eefd"] ;
90 -> 91 ;
92 [label="f_2 <= 1490.117\ngini = 0.779\nsamples = 369\nvalue = [148, 33, 9, 56, 0, 15, 25, 43, 35, 0, 1, 4]\nclass = sil", fillcolor="#f7dac5"] ;
91 -> 92 ;
93 [label="f_2 <= 1196.856\ngini = 0.576\nsamples = 209\nvalue = [132, 15, 9, 3, 0, 10, 14, 22, 4, 0, 0, 0]\nclass = sil", fillcolor="#f0b58b"] ;
92 -> 93 ;
94 [label="gini = 0.812\nsamples = 56\nvalue = [15, 8, 4, 1, 0, 4, 11, 12, 1, 0, 0, 0]\nclass = sil", fillcolor="#fdf6f1"] ;
93 -> 94 ;
95 [label="gini = 0.405\nsamples = 153\nvalue = [117, 7, 5, 2, 0, 6, 3, 10, 3, 0, 0, 0]\nclass = sil", fillcolor="#eca16b"] ;
93 -> 95 ;
96 [label="f_4 <= 3594.412\ngini = 0.806\nsamples = 160\nvalue = [16, 18, 0, 53, 0, 5, 11, 21, 31, 0, 1, 4]\nclass = approximant", fillcolor="#e0fbdd"] ;
92 -> 96 ;
97 [label="gini = 0.783\nsamples = 133\nvalue = [15, 18, 0, 52, 0, 5, 11, 19, 8, 0, 1, 4]\nclass = approximant", fillcolor="#caf7c6"] ;
96 -> 97 ;
98 [label="gini = 0.266\nsamples = 27\nvalue = [1, 0, 0, 1, 0, 0, 0, 2, 23, 0, 0, 0]\nclass = plosive", fillcolor="#9559e9"] ;
96 -> 98 ;
99 [label="i <= 62.442\ngini = 0.401\nsamples = 205\nvalue = [5, 0, 0, 30, 0, 0, 15, 0, 155, 0, 0, 0]\nclass = plosive", fillcolor="#a572ec"] ;
91 -> 99 ;
100 [label="i <= 61.599\ngini = 0.129\nsamples = 133\nvalue = [1, 0, 0, 3, 0, 0, 5, 0, 124, 0, 0, 0]\nclass = plosive", fillcolor="#8a47e7"] ;
99 -> 100 ;
101 [label="gini = 0.057\nsamples = 102\nvalue = [0, 0, 0, 0, 0, 0, 3, 0, 99, 0, 0, 0]\nclass = plosive", fillcolor="#853fe6"] ;
100 -> 101 ;
102 [label="gini = 0.335\nsamples = 31\nvalue = [1, 0, 0, 3, 0, 0, 2, 0, 25, 0, 0, 0]\nclass = plosive", fillcolor="#9c63eb"] ;
100 -> 102 ;
103 [label="f_5 <= 4613.823\ngini = 0.652\nsamples = 72\nvalue = [4, 0, 0, 27, 0, 0, 10, 0, 31, 0, 0, 0]\nclass = plosive", fillcolor="#f4edfd"] ;
99 -> 103 ;
104 [label="gini = 0.545\nsamples = 49\nvalue = [4, 0, 0, 4, 0, 0, 10, 0, 31, 0, 0, 0]\nclass = plosive", fillcolor="#bb94f1"] ;
103 -> 104 ;
105 [label="gini = 0.0\nsamples = 23\nvalue = [0, 0, 0, 23, 0, 0, 0, 0, 0, 0, 0, 0]\nclass = approximant", fillcolor="#47e539"] ;
103 -> 105 ;
106 [label="f_2 <= 1762.329\ngini = 0.428\nsamples = 1316\nvalue = [988, 30, 55, 45, 6, 27, 61, 49, 19, 3, 23, 10]\nclass = sil", fillcolor="#eca26d"] ;
90 -> 106 ;
107 [label="f_1 <= 644.558\ngini = 0.347\nsamples = 1183\nvalue = [952, 24, 39, 12, 2, 15, 57, 39, 8, 2, 23, 10]\nclass = sil", fillcolor="#ea9b62"] ;
106 -> 107 ;
108 [label="f_2 <= 1138.472\ngini = 0.646\nsamples = 247\nvalue = [138, 2, 26, 4, 0, 3, 38, 15, 1, 2, 12, 6]\nclass = sil", fillcolor="#f3c3a0"] ;
107 -> 108 ;
109 [label="gini = 0.624\nsamples = 63\nvalue = [28, 0, 1, 0, 0, 0, 26, 5, 1, 2, 0, 0]\nclass = sil", fillcolor="#fef8f4"] ;
108 -> 109 ;
110 [label="gini = 0.611\nsamples = 184\nvalue = [110, 2, 25, 4, 0, 3, 12, 10, 0, 0, 12, 6]\nclass = sil", fillcolor="#f1bc95"] ;
108 -> 110 ;
111 [label="f_4 <= 3478.99\ngini = 0.241\nsamples = 936\nvalue = [814, 22, 13, 8, 2, 12, 19, 24, 7, 0, 11, 4]\nclass = sil", fillcolor="#e89253"] ;
107 -> 111 ;
112 [label="gini = 0.191\nsamples = 821\nvalue = [738, 8, 13, 4, 2, 12, 13, 16, 0, 0, 11, 4]\nclass = sil", fillcolor="#e88e4d"] ;
111 -> 112 ;
113 [label="gini = 0.536\nsamples = 115\nvalue = [76, 14, 0, 4, 0, 0, 6, 8, 7, 0, 0, 0]\nclass = sil", fillcolor="#efb285"] ;
111 -> 113 ;
114 [label="f_3 <= 2449.83\ngini = 0.826\nsamples = 133\nvalue = [36, 6, 16, 33, 4, 12, 4, 10, 11, 1, 0, 0]\nclass = sil", fillcolor="#fefbf9"] ;
106 -> 114 ;
115 [label="i <= 68.982\ngini = 0.203\nsamples = 27\nvalue = [24, 0, 1, 2, 0, 0, 0, 0, 0, 0, 0, 0]\nclass = sil", fillcolor="#e89051"] ;
114 -> 115 ;
116 [label="gini = 0.625\nsamples = 4\nvalue = [1, 0, 1, 2, 0, 0, 0, 0, 0, 0, 0, 0]\nclass = approximant", fillcolor="#c2f6bd"] ;
115 -> 116 ;
117 [label="gini = 0.0\nsamples = 23\nvalue = [23, 0, 0, 0, 0, 0, 0, 0, 0, 0, 0, 0]\nclass = sil", fillcolor="#e58139"] ;
115 -> 117 ;
118 [label="f_5 <= 4079.812\ngini = 0.843\nsamples = 106\nvalue = [12, 6, 15, 31, 4, 12, 4, 10, 11, 1, 0, 0]\nclass = approximant", fillcolor="#dffadc"] ;
114 -> 118 ;
119 [label="gini = 0.813\nsamples = 50\nvalue = [2, 5, 14, 5, 3, 12, 0, 8, 0, 1, 0, 0]\nclass = e", fillcolor="#fafef5"] ;
118 -> 119 ;
120 [label="gini = 0.707\nsamples = 56\nvalue = [10, 1, 1, 26, 1, 0, 4, 2, 11, 0, 0, 0]\nclass = approximant", fillcolor="#c2f6bd"] ;
118 -> 120 ;
}